digraph Tree {
node [shape=box, style="filled", color="black"] ;
0 [label="X[1] <= 0.5\ngini = 0.622\nsamples = 5243\nvalue = [1276, 1316, 2651]", fillcolor="#d4bcf6"] ;
1 [label="X[0] <= 0.5\ngini = 0.666\nsamples = 3951\nvalue = [1260, 1299, 1392]", fillcolor="#fbf8fe"] ;
0 -> 1 [labeldistance=2.5, labelangle=45, headlabel="True"] ;
3 [label="X[2] <= 0.5\ngini = 0.633\nsamples = 3117\nvalue = [1260, 1287, 570]", fillcolor="#fcfffd"] ;
1 -> 3 ;
5 [label="X[10] <= 0.002\ngini = 0.524\nsamples = 2608\nvalue = [1260, 1283, 65]", fillcolor="#fcfffd"] ;
3 -> 5 ;
7 [label="X[3] <= 0.5\ngini = 0.312\nsamples = 996\nvalue = [812, 147, 37]", fillcolor="#eb9c64"] ;
5 -> 7 ;
11 [label="X[10] <= 0.001\ngini = 0.266\nsamples = 963\nvalue = [812, 147, 4]", fillcolor="#ea985e"] ;
7 -> 11 ;
15 [label="gini = 0.079\nsamples = 559\nvalue = [536, 22, 1]", fillcolor="#e68641"] ;
11 -> 15 ;
16 [label="X[11] <= 0.172\ngini = 0.437\nsamples = 404\nvalue = [276, 125, 3]", fillcolor="#f1bb94"] ;
11 -> 16 ;
23 [label="gini = 0.491\nsamples = 185\nvalue = [105, 80, 0]", fillcolor="#f9e1d0"] ;
16 -> 23 ;
24 [label="gini = 0.348\nsamples = 219\nvalue = [171, 45, 3]", fillcolor="#eca470"] ;
16 -> 24 ;
12 [label="gini = 0.0\nsamples = 33\nvalue = [0, 0, 33]", fillcolor="#8139e5"] ;
7 -> 12 ;
8 [label="X[6] <= 0.009\ngini = 0.426\nsamples = 1612\nvalue = [448, 1136, 28]", fillcolor="#8af0b5"] ;
5 -> 8 ;
9 [label="X[3] <= 0.5\ngini = 0.377\nsamples = 1423\nvalue = [323, 1075, 25]", fillcolor="#78eda9"] ;
8 -> 9 ;
13 [label="X[12] <= 0.013\ngini = 0.356\nsamples = 1397\nvalue = [323, 1074, 0]", fillcolor="#75eda7"] ;
9 -> 13 ;
17 [label="X[8] <= 1.0\ngini = 0.322\nsamples = 1247\nvalue = [251, 996, 0]", fillcolor="#6beca1"] ;
13 -> 17 ;
21 [label="gini = 0.431\nsamples = 378\nvalue = [119, 259, 0]", fillcolor="#94f1bb"] ;
17 -> 21 ;
22 [label="X[5] <= 0.984\ngini = 0.258\nsamples = 869\nvalue = [132, 737, 0]", fillcolor="#5cea98"] ;
17 -> 22 ;
25 [label="gini = 0.472\nsamples = 21\nvalue = [13, 8, 0]", fillcolor="#f5cfb3"] ;
22 -> 25 ;
26 [label="gini = 0.241\nsamples = 848\nvalue = [119, 729, 0]", fillcolor="#59e996"] ;
22 -> 26 ;
18 [label="gini = 0.499\nsamples = 150\nvalue = [72, 78, 0]", fillcolor="#f0fdf5"] ;
13 -> 18 ;
14 [label="gini = 0.074\nsamples = 26\nvalue = [0, 1, 25]", fillcolor="#8641e6"] ;
9 -> 14 ;
10 [label="X[9] <= 0.0\ngini = 0.458\nsamples = 189\nvalue = [125, 61, 3]", fillcolor="#f2c09c"] ;
8 -> 10 ;
19 [label="gini = 0.508\nsamples = 109\nvalue = [52, 56, 1]", fillcolor="#f1fdf6"] ;
10 -> 19 ;
20 [label="gini = 0.163\nsamples = 80\nvalue = [73, 5, 2]", fillcolor="#e78d4b"] ;
10 -> 20 ;
6 [label="gini = 0.016\nsamples = 509\nvalue = [0, 4, 505]", fillcolor="#823be5"] ;
3 -> 6 ;
4 [label="gini = 0.028\nsamples = 834\nvalue = [0, 12, 822]", fillcolor="#833ce5"] ;
1 -> 4 ;
2 [label="gini = 0.05\nsamples = 1292\nvalue = [16, 17, 1259]", fillcolor="#843ee6"] ;
0 -> 2 [labeldistance=2.5, labelangle=-45, headlabel="False"] ;
}